2 2 3 16 8
0.119312 0.156117 -0.336512 -0.107135 -0.364772 -0.438505 0.487976 -0.403745 0.0980102 0.143635 -0.237815 -0.0829646 0.090289 0.148824 0.263146 0.475799 0.395047 -0.206656 0.147237 -0.11211 0.4129 -0.364406 -0.0413373 0.363002 0.488006 0.223563 -0.188284 -0.216697 -0.201651 0.049089 -0.34695 -0.458312 
-0.0332194 0.340083 0.0105136 -0.0793939 0.0486618 -0.278283 0.134053 0.293451 0.0533006 0.278039 -0.06386 -0.0707572 -0.345698 0.0452132 -0.363308 -0.317499 
0.245994 0.467925 -0.480438 0.348506 0.00148015 -0.150594 -0.293298 -0.0337382 0.0892514 0.327326 0.355892 -0.150014 -0.296045 0.406095 0.188772 -0.369869 0.0680715 -0.422941 -0.244865 0.0855892 0.0602893 0.0580004 0.339808 0.0479598 -0.372524 0.18276 -0.0818049 0.15981 -0.364315 0.472747 0.0672781 -0.233024 0.317194 -0.0788141 0.237419 -0.272393 -0.030839 -0.478393 0.292352 0.418027 0.0609607 -0.428343 -0.277581 -0.282891 0.405484 -0.216422 0.438353 0.250755 -0.448668 -0.267479 -0.449034 -0.322993 0.0522019 -0.325892 0.0439314 0.293725 -0.23101 0.262413 -0.255272 -0.250511 -0.138173 0.19924 -0.498627 0.139607 -0.372616 0.346797 -0.0300455 0.267785 -0.161367 0.334162 -0.0800653 0.355281 -0.257775 0.189291 0.463347 -0.0213172 0.370907 0.027543 0.113971 -0.48294 0.326044 0.328211 0.0828425 -0.109485 -0.312281 -0.169881 -0.283624 -0.1292 0.207633 -0.4223 0.483367 -0.254509 0.441374 0.148701 0.416868 -0.382962 -0.0232704 -0.405484 0.417631 0.117573 0.413877 0.125141 0.325068 -0.178762 0.253441 0.0690786 0.161885 0.134968 0.349513 0.140156 0.459044 -0.0511643 0.082812 -0.457945 0.0667592 -0.17214 -0.0885495 -0.0577868 0.358425 0.0254982 0.454344 -0.154225 0.232963 0.101154 -0.235832 0.401547 -0.177328 0.422208 
-0.0535447 0.170553 0.312128 0.331996 -0.219962 -0.111042 -0.225425 0.265374 
0.496216 -0.243797 0.432585 -0.40762 0.371822 0.279839 0.248222 0.472137 0.293603 0.208335 0.250084 0.497131 -0.0507675 -0.417112 -0.497559 0.410459 -0.19866 0.439848 0.123646 -0.323908 -0.498596 0.194266 0.259209 0.184194 
-0.100879 0.237205 0.41641 
