2 2 6 8 8
-0.166707 0.0017243 0.00627155 0.198996 0.294153 -0.38876 0.48468 -0.00679037 -0.227805 -0.0514084 0.0975524 0.461425 -0.0981933 -0.408383 0.168325 -0.0377667 
0.121387 0.18276 0.397397 0.0119785 -0.471038 -0.0131077 -0.187368 -0.441282 
-0.314936 -0.391995 0.245109 -0.319819 0.144185 -0.479858 0.361293 -0.388302 -0.00437941 -0.431242 -0.216544 -0.489532 0.196097 0.0993835 0.328944 -0.137562 -0.0263222 -0.130634 -0.100055 -0.0619678 0.0861385 0.399136 0.0550096 0.202811 0.21337 -0.0810724 -0.206809 0.0896176 0.266228 -0.432218 -0.417325 0.0383465 -0.107593 0.000595111 0.164449 0.209281 -0.0388348 0.0594958 0.162832 -0.223258 0.307367 -0.333766 0.0338298 0.209098 -0.483306 -0.40878 0.382748 0.441038 0.0335856 0.255974 0.181936 0.345088 0.371853 0.224815 -0.0796686 0.407865 -0.289331 -0.457457 0.216056 0.0178991 -0.343379 -0.426084 -0.0772576 0.270867 
0.452422 -0.498871 0.261742 -0.301355 0.414853 0.136189 0.0104526 -0.171255 
-0.118061 0.203574 0.279107 -0.0203711 0.451598 -0.24987 -0.0938902 0.198874 -0.207999 -0.161946 0.00425733 -0.24987 -0.193991 0.177328 -0.31164 0.0551927 0.430021 -0.14626 -0.484283 0.497284 -0.151112 -0.190756 -0.329066 -0.0081637 0.408322 0.230064 0.425901 -0.268395 0.005356 0.499512 -0.0935545 0.011185 0.239219 -0.12859 -0.302759 -0.461821 0.102496 -0.479339 0.315271 0.137226 0.495239 0.126698 0.0840022 0.252129 0.342036 -0.35345 0.439451 0.153859 
-0.405789 0.433775 0.198416 0.259362 -0.102039 0.358974 
