2 2 6 8 8
-0.0181738 -0.208945 0.476714 0.141865 0.294183 -0.0480514 0.460143 -0.486145 0.0490585 -0.439207 -0.446043 -0.151906 0.068041 -0.168752 -0.417447 -0.224357 
-0.354091 -0.185018 0.082812 0.110096 -0.431089 -0.0278787 -0.282159 0.231468 
0.0880612 -0.123707 0.286645 -0.31695 0.253594 -0.163869 -0.0149693 0.0123753 -0.482635 -0.286554 0.0756096 0.387417 0.00868252 -0.279534 -0.378536 0.0196387 0.390378 0.476501 0.441099 -0.0750603 -0.298639 0.105609 -0.0601672 0.0534837 0.0914487 -0.343135 -0.0249489 0.320338 -0.144765 -0.37225 0.410184 -0.432859 -0.328974 -0.127369 -0.485199 -0.0124668 0.451048 -0.323176 -0.133168 0.045732 -0.290887 0.278558 -0.0876034 0.421293 -0.147572 -0.381191 -0.159322 0.0100253 0.303247 -0.398648 -0.0708487 -0.486755 -0.143208 -0.35641 0.0159459 -0.354396 0.182058 -0.200247 0.255242 0.493774 -0.128986 0.237602 -0.187674 0.0565355 
-0.0565966 0.349757 -0.34582 0.497986 0.212271 0.281335 0.0921201 0.144429 
0.417661 0.154592 0.232475 -0.242668 -0.466277 -0.227805 -0.00798059 0.112232 0.156087 0.0801874 -0.166097 0.416074 0.375484 0.172048 -0.119587 -0.406766 0.0439924 0.11504 -0.440703 -0.0275124 -0.15981 0.37991 0.439238 0.404935 0.0391095 0.155538 0.411039 0.345454 0.393948 0.329524 -0.128986 -0.0721305 0.0348369 0.416013 0.0623646 -0.434233 -0.207999 0.212119 0.23104 0.109699 -0.151479 0.463988 -0.247795 0.0925779 0.129658 0.32403 -0.115864 0.0939207 
0.334742 -0.119739 0.304529 -0.245262 0.0178076 -0.460662 
